digraph Tree {
node [shape=box] ;
0 [label="meanfun <= 0.142\ngini = 0.5\nsamples = 2851\nvalue = [1431, 1420]"] ;
1 [label="IQR <= 0.071\ngini = 0.102\nsamples = 1464\nvalue = [1385, 79]"] ;
0 -> 1 [labeldistance=2.5, labelangle=45, headlabel="True"] ;
2 [label="gini = 0.453\nsamples = 72\nvalue = [25, 47]"] ;
1 -> 2 ;
3 [label="meanfun <= 0.134\ngini = 0.045\nsamples = 1392\nvalue = [1360, 32]"] ;
1 -> 3 ;
4 [label="minfun <= 0.015\ngini = 0.014\nsamples = 1246\nvalue = [1237, 9]"] ;
3 -> 4 ;
5 [label="gini = 0.408\nsamples = 14\nvalue = [10, 4]"] ;
4 -> 5 ;
6 [label="sd <= 0.097\ngini = 0.008\nsamples = 1232\nvalue = [1227, 5]"] ;
4 -> 6 ;
7 [label="Q75 <= 0.142\ngini = 0.006\nsamples = 1231\nvalue = [1227, 4]"] ;
6 -> 7 ;
8 [label="gini = 0.219\nsamples = 8\nvalue = [7, 1]"] ;
7 -> 8 ;
9 [label="sfm <= 0.779\ngini = 0.005\nsamples = 1223\nvalue = [1220, 3]"] ;
7 -> 9 ;
10 [label="IQR <= 0.079\ngini = 0.003\nsamples = 1207\nvalue = [1205, 2]"] ;
9 -> 10 ;
11 [label="gini = 0.087\nsamples = 22\nvalue = [21, 1]"] ;
10 -> 11 ;
12 [label="IQR <= 0.097\ngini = 0.002\nsamples = 1185\nvalue = [1184, 1]"] ;
10 -> 12 ;
13 [label="gini = 0.012\nsamples = 172\nvalue = [171, 1]"] ;
12 -> 13 ;
14 [label="gini = 0.0\nsamples = 1013\nvalue = [1013, 0]"] ;
12 -> 14 ;
15 [label="gini = 0.117\nsamples = 16\nvalue = [15, 1]"] ;
9 -> 15 ;
16 [label="gini = 0.0\nsamples = 1\nvalue = [0, 1]"] ;
6 -> 16 ;
17 [label="gini = 0.265\nsamples = 146\nvalue = [123, 23]"] ;
3 -> 17 ;
18 [label="meanfun <= 0.149\ngini = 0.064\nsamples = 1387\nvalue = [46, 1341]"] ;
0 -> 18 [labeldistance=2.5, labelangle=-45, headlabel="False"] ;
19 [label="gini = 0.349\nsamples = 133\nvalue = [30, 103]"] ;
18 -> 19 ;
20 [label="Q75 <= 0.172\ngini = 0.025\nsamples = 1254\nvalue = [16, 1238]"] ;
18 -> 20 ;
21 [label="gini = 0.391\nsamples = 15\nvalue = [4, 11]"] ;
20 -> 21 ;
22 [label="sfm <= 0.082\ngini = 0.019\nsamples = 1239\nvalue = [12, 1227]"] ;
20 -> 22 ;
23 [label="gini = 0.444\nsamples = 3\nvalue = [1, 2]"] ;
22 -> 23 ;
24 [label="sp.ent <= 0.898\ngini = 0.018\nsamples = 1236\nvalue = [11, 1225]"] ;
22 -> 24 ;
25 [label="gini = 0.0\nsamples = 920\nvalue = [0, 920]"] ;
24 -> 25 ;
26 [label="gini = 0.067\nsamples = 316\nvalue = [11, 305]"] ;
24 -> 26 ;
}