digraph Tree {
node [shape=box] ;
0 [label="meanfun <= 0.142\ngini = 0.5\nsamples = 3168\nvalue = [1584, 1584]"] ;
1 [label="IQR <= 0.071\ngini = 0.103\nsamples = 1616\nvalue = [1528, 88]"] ;
0 -> 1 [labeldistance=2.5, labelangle=45, headlabel="True"] ;
2 [label="gini = 0.465\nsamples = 87\nvalue = [32, 55]"] ;
1 -> 2 ;
3 [label="meanfun <= 0.134\ngini = 0.042\nsamples = 1529\nvalue = [1496, 33]"] ;
1 -> 3 ;
4 [label="skew <= 34.631\ngini = 0.013\nsamples = 1375\nvalue = [1366, 9]"] ;
3 -> 4 ;
5 [label="minfun <= 0.01\ngini = 0.012\nsamples = 1374\nvalue = [1366, 8]"] ;
4 -> 5 ;
6 [label="gini = 0.0\nsamples = 1\nvalue = [0, 1]"] ;
5 -> 6 ;
7 [label="minfun <= 0.015\ngini = 0.01\nsamples = 1373\nvalue = [1366, 7]"] ;
5 -> 7 ;
8 [label="gini = 0.32\nsamples = 15\nvalue = [12, 3]"] ;
7 -> 8 ;
9 [label="median <= 0.059\ngini = 0.006\nsamples = 1358\nvalue = [1354, 4]"] ;
7 -> 9 ;
10 [label="gini = 0.198\nsamples = 9\nvalue = [8, 1]"] ;
9 -> 10 ;
11 [label="sfm <= 0.779\ngini = 0.004\nsamples = 1349\nvalue = [1346, 3]"] ;
9 -> 11 ;
12 [label="IQR <= 0.079\ngini = 0.003\nsamples = 1330\nvalue = [1328, 2]"] ;
11 -> 12 ;
13 [label="gini = 0.077\nsamples = 25\nvalue = [24, 1]"] ;
12 -> 13 ;
14 [label="IQR <= 0.097\ngini = 0.002\nsamples = 1305\nvalue = [1304, 1]"] ;
12 -> 14 ;
15 [label="IQR <= 0.097\ngini = 0.011\nsamples = 186\nvalue = [185, 1]"] ;
14 -> 15 ;
16 [label="gini = 0.0\nsamples = 185\nvalue = [185, 0]"] ;
15 -> 16 ;
17 [label="gini = 0.0\nsamples = 1\nvalue = [0, 1]"] ;
15 -> 17 ;
18 [label="gini = 0.0\nsamples = 1119\nvalue = [1119, 0]"] ;
14 -> 18 ;
19 [label="gini = 0.1\nsamples = 19\nvalue = [18, 1]"] ;
11 -> 19 ;
20 [label="gini = 0.0\nsamples = 1\nvalue = [0, 1]"] ;
4 -> 20 ;
21 [label="minfun <= 0.041\ngini = 0.263\nsamples = 154\nvalue = [130, 24]"] ;
3 -> 21 ;
22 [label="gini = 0.469\nsamples = 32\nvalue = [12, 20]"] ;
21 -> 22 ;
23 [label="mindom <= 0.199\ngini = 0.063\nsamples = 122\nvalue = [118, 4]"] ;
21 -> 23 ;
24 [label="Q25 <= 0.15\ngini = 0.048\nsamples = 121\nvalue = [118, 3]"] ;
23 -> 24 ;
25 [label="gini = 0.0\nsamples = 110\nvalue = [110, 0]"] ;
24 -> 25 ;
26 [label="gini = 0.397\nsamples = 11\nvalue = [8, 3]"] ;
24 -> 26 ;
27 [label="gini = 0.0\nsamples = 1\nvalue = [0, 1]"] ;
23 -> 27 ;
28 [label="meanfun <= 0.148\ngini = 0.07\nsamples = 1552\nvalue = [56, 1496]"] ;
0 -> 28 [labeldistance=2.5, labelangle=-45, headlabel="False"] ;
29 [label="IQR <= 0.071\ngini = 0.417\nsamples = 108\nvalue = [32, 76]"] ;
28 -> 29 ;
30 [label="gini = 0.062\nsamples = 62\nvalue = [2, 60]"] ;
29 -> 30 ;
31 [label="gini = 0.454\nsamples = 46\nvalue = [30, 16]"] ;
29 -> 31 ;
32 [label="meanfreq <= 0.078\ngini = 0.033\nsamples = 1444\nvalue = [24, 1420]"] ;
28 -> 32 ;
33 [label="gini = 0.0\nsamples = 1\nvalue = [1, 0]"] ;
32 -> 33 ;
34 [label="sp.ent <= 0.908\ngini = 0.031\nsamples = 1443\nvalue = [23, 1420]"] ;
32 -> 34 ;
35 [label="sfm <= 0.082\ngini = 0.005\nsamples = 1107\nvalue = [3, 1104]"] ;
34 -> 35 ;
36 [label="gini = 0.444\nsamples = 3\nvalue = [1, 2]"] ;
35 -> 36 ;
37 [label="meanfun <= 0.148\ngini = 0.004\nsamples = 1104\nvalue = [2, 1102]"] ;
35 -> 37 ;
38 [label="gini = 0.32\nsamples = 5\nvalue = [1, 4]"] ;
37 -> 38 ;
39 [label="mode <= 0.277\ngini = 0.002\nsamples = 1099\nvalue = [1, 1098]"] ;
37 -> 39 ;
40 [label="gini = 0.0\nsamples = 1089\nvalue = [0, 1089]"] ;
39 -> 40 ;
41 [label="gini = 0.18\nsamples = 10\nvalue = [1, 9]"] ;
39 -> 41 ;
42 [label="dfrange <= 5.289\ngini = 0.112\nsamples = 336\nvalue = [20, 316]"] ;
34 -> 42 ;
43 [label="meanfun <= 0.149\ngini = 0.023\nsamples = 260\nvalue = [3, 257]"] ;
42 -> 43 ;
44 [label="gini = 0.26\nsamples = 13\nvalue = [2, 11]"] ;
43 -> 44 ;
45 [label="IQR <= 0.049\ngini = 0.008\nsamples = 247\nvalue = [1, 246]"] ;
43 -> 45 ;
46 [label="gini = 0.142\nsamples = 13\nvalue = [1, 12]"] ;
45 -> 46 ;
47 [label="gini = 0.0\nsamples = 234\nvalue = [0, 234]"] ;
45 -> 47 ;
48 [label="gini = 0.347\nsamples = 76\nvalue = [17, 59]"] ;
42 -> 48 ;
}